{"storagePath":"D:/Programme Workspace/GitHub/Maturitaetsarbeit-KNN/Assets/StreamingAssets/AIs","id":"3e53e8b4-aea0-4a49-bde0-e9ad4c043861","name":"Testerino","created":"11/28/2018 21:35:23","trainingSessions":[{"courseId":"Test","created":"11/28/2018 21:35:23","generations":[{"individuals":[{"hasCrahsed":true,"fitness":63.0,"nn":{"neuronAmounts":[5,4,1],"DNA":[3.61393547058105,0.789100646972656,-4.40207004547119,4.35380554199219,2.51348972320557,1.7909631729126,-2.57600069046021,-2.58243083953857,3.26611518859863,-1.5948657989502,0.708393573760986,-0.0577445030212402,-3.96939182281494,0.166840076446533,-3.40459084510803,4.78564453125,-4.75437068939209,-2.74929141998291,-0.526744842529297,-1.39285278320313,2.8655743598938,2.02569365501404,4.15128898620605,0.259825706481934,-0.801097869873047,0.993862628936768,-2.77678871154785,-4.82248401641846,0.938168048858643],"layers":[{"neurons":[{"weights":[3.61393547058105,0.789100646972656,-4.40207004547119,4.35380554199219,2.51348972320557],"bias":1.7909631729126},{"weights":[-2.57600069046021,-2.58243083953857,3.26611518859863,-1.5948657989502,0.708393573760986],"bias":-0.0577445030212402},{"weights":[-3.96939182281494,0.166840076446533,-3.40459084510803,4.78564453125,-4.75437068939209],"bias":-2.74929141998291},{"weights":[-0.526744842529297,-1.39285278320313,2.8655743598938,2.02569365501404,4.15128898620605],"bias":0.259825706481934}]},{"neurons":[{"weights":[-0.801097869873047,0.993862628936768,-2.77678871154785,-4.82248401641846],"bias":0.938168048858643}]}]}},{"hasCrahsed":true,"fitness":65.0,"nn":{"neuronAmounts":[5,4,1],"DNA":[1.22843551635742,0.452766895294189,2.7994704246521,0.7103590965271,-1.51601123809814,-0.486874103546143,0.365729808807373,-2.07338285446167,-3.54439949989319,3.869948387146,3.12452411651611,1.83948397636414,-3.31281185150146,-3.20606803894043,-1.70988035202026,-1.21285486221313,-0.227534294128418,2.85703659057617,-3.37519550323486,-3.01138663291931,1.26661658287048,1.03226852416992,4.87155342102051,-2.6316499710083,-1.59826707839966,-2.92221927642822,-1.74509477615356,4.80877304077148,-0.777153491973877],"layers":[{"neurons":[{"weights":[1.22843551635742,0.452766895294189,2.7994704246521,0.7103590965271,-1.51601123809814],"bias":-0.486874103546143},{"weights":[0.365729808807373,-2.07338285446167,-3.54439949989319,3.869948387146,3.12452411651611],"bias":1.83948397636414},{"weights":[-3.31281185150146,-3.20606803894043,-1.70988035202026,-1.21285486221313,-0.227534294128418],"bias":2.85703659057617},{"weights":[-3.37519550323486,-3.01138663291931,1.26661658287048,1.03226852416992,4.87155342102051],"bias":-2.6316499710083}]},{"neurons":[{"weights":[-1.59826707839966,-2.92221927642822,-1.74509477615356,4.80877304077148],"bias":-0.777153491973877}]}]}},{"hasCrahsed":true,"fitness":63.0,"nn":{"neuronAmounts":[5,4,1],"DNA":[-3.00120830535889,-4.43606758117676,-4.63488006591797,-1.98282766342163,3.08671188354492,-2.05353689193726,-1.16895389556885,4.97018718719482,3.44912314414978,4.20395088195801,1.69186103343964,3.45813632011414,4.45812225341797,4.8261661529541,0.354887962341309,-2.74584865570068,-1.53825235366821,-4.81932544708252,3.19415307044983,-0.877716064453125,-0.00305604934692383,3.89983916282654,3.5256290435791,1.63828945159912,1.56234359741211,2.41079211235046,-3.06726837158203,4.92787551879883,-4.24497413635254],"layers":[{"neurons":[{"weights":[-3.00120830535889,-4.43606758117676,-4.63488006591797,-1.98282766342163,3.08671188354492],"bias":-2.05353689193726},{"weights":[-1.16895389556885,4.97018718719482,3.44912314414978,4.20395088195801,1.69186103343964],"bias":3.45813632011414},{"weights":[4.45812225341797,4.8261661529541,0.354887962341309,-2.74584865570068,-1.53825235366821],"bias":-4.81932544708252},{"weights":[3.19415307044983,-0.877716064453125,-0.00305604934692383,3.89983916282654,3.5256290435791],"bias":1.63828945159912}]},{"neurons":[{"weights":[1.56234359741211,2.41079211235046,-3.06726837158203,4.92787551879883],"bias":-4.24497413635254}]}]}},{"hasCrahsed":true,"fitness":63.0,"nn":{"neuronAmounts":[5,4,1],"DNA":[-3.27909374237061,2.90694808959961,0.711142539978027,-0.828128337860107,2.44515991210938,1.11476135253906,-2.03449201583862,-3.35092759132385,-4.09338569641113,-3.16559791564941,0.0425820350646973,2.51266837120056,-4.83085632324219,3.62156653404236,-0.58506441116333,-0.976400852203369,3.43076324462891,-2.83702850341797,-3.82996344566345,4.80326175689697,1.73927187919617,4.57484817504883,2.57681846618652,0.369201183319092,2.36936450004578,-1.58773374557495,3.07144999504089,-0.225038051605225,-1.33445072174072],"layers":[{"neurons":[{"weights":[-3.27909374237061,2.90694808959961,0.711142539978027,-0.828128337860107,2.44515991210938],"bias":1.11476135253906},{"weights":[-2.03449201583862,-3.35092759132385,-4.09338569641113,-3.16559791564941,0.0425820350646973],"bias":2.51266837120056},{"weights":[-4.83085632324219,3.62156653404236,-0.58506441116333,-0.976400852203369,3.43076324462891],"bias":-2.83702850341797},{"weights":[-3.82996344566345,4.80326175689697,1.73927187919617,4.57484817504883,2.57681846618652],"bias":0.369201183319092}]},{"neurons":[{"weights":[2.36936450004578,-1.58773374557495,3.07144999504089,-0.225038051605225],"bias":-1.33445072174072}]}]}},{"hasCrahsed":true,"fitness":352.0,"nn":{"neuronAmounts":[5,4,1],"DNA":[3.40161681175232,-2.96256303787231,0.282159328460693,3.33209776878357,-2.47496652603149,4.08875370025635,2.7955150604248,-2.98477268218994,-1.873046875,-2.4062294960022,0.155182361602783,-0.772986888885498,-3.1865861415863,-3.54696273803711,1.11352157592773,1.53399455547333,-0.848485946655273,-0.0844497680664063,-0.417376041412354,-1.41125392913818,-2.38154697418213,3.49105358123779,1.54991984367371,-1.27397727966309,0.395895957946777,4.44844150543213,-4.06517219543457,4.34233665466309,2.46090292930603],"layers":[{"neurons":[{"weights":[3.40161681175232,-2.96256303787231,0.282159328460693,3.33209776878357,-2.47496652603149],"bias":4.08875370025635},{"weights":[2.7955150604248,-2.98477268218994,-1.873046875,-2.4062294960022,0.155182361602783],"bias":-0.772986888885498},{"weights":[-3.1865861415863,-3.54696273803711,1.11352157592773,1.53399455547333,-0.848485946655273],"bias":-0.0844497680664063},{"weights":[-0.417376041412354,-1.41125392913818,-2.38154697418213,3.49105358123779,1.54991984367371],"bias":-1.27397727966309}]},{"neurons":[{"weights":[0.395895957946777,4.44844150543213,-4.06517219543457,4.34233665466309],"bias":2.46090292930603}]}]}},{"hasCrahsed":true,"fitness":58.0,"nn":{"neuronAmounts":[5,4,1],"DNA":[-4.94048118591309,-2.62086153030396,2.00177431106567,1.11886072158813,-0.093501091003418,-3.86019706726074,-0.787295818328857,4.50629711151123,1.85784804821014,-2.37025213241577,4.37783241271973,-3.79440093040466,-3.27190399169922,3.91327476501465,-4.0534839630127,4.96339988708496,-1.29248666763306,4.53579807281494,-0.493220806121826,-1.12785148620605,-0.326028347015381,-4.88574600219727,1.17629480361938,-4.74962711334229,-4.09927940368652,4.16521167755127,4.97810935974121,4.35814476013184,-4.63673496246338],"layers":[{"neurons":[{"weights":[-4.94048118591309,-2.62086153030396,2.00177431106567,1.11886072158813,-0.093501091003418],"bias":-3.86019706726074},{"weights":[-0.787295818328857,4.50629711151123,1.85784804821014,-2.37025213241577,4.37783241271973],"bias":-3.79440093040466},{"weights":[-3.27190399169922,3.91327476501465,-4.0534839630127,4.96339988708496,-1.29248666763306],"bias":4.53579807281494},{"weights":[-0.493220806121826,-1.12785148620605,-0.326028347015381,-4.88574600219727,1.17629480361938],"bias":-4.74962711334229}]},{"neurons":[{"weights":[-4.09927940368652,4.16521167755127,4.97810935974121,4.35814476013184],"bias":-4.63673496246338}]}]}},{"hasCrahsed":true,"fitness":59.0,"nn":{"neuronAmounts":[5,4,1],"DNA":[-4.05307960510254,-1.74380731582642,3.42809081077576,4.26835060119629,-2.83926248550415,4.96067523956299,2.35990619659424,-0.127923965454102,-2.90124034881592,2.90152549743652,-1.48983907699585,0.426311016082764,2.41772055625916,0.633719444274902,-4.60978317260742,-4.10083961486816,-2.56274223327637,-1.01352405548096,-0.796690464019775,1.03398609161377,2.2132670879364,-2.16691207885742,0.620908260345459,3.80832552909851,-4.81110000610352,-4.04985523223877,1.15038442611694,4.24981594085693,-4.36045074462891],"layers":[{"neurons":[{"weights":[-4.05307960510254,-1.74380731582642,3.42809081077576,4.26835060119629,-2.83926248550415],"bias":4.96067523956299},{"weights":[2.35990619659424,-0.127923965454102,-2.90124034881592,2.90152549743652,-1.48983907699585],"bias":0.426311016082764},{"weights":[2.41772055625916,0.633719444274902,-4.60978317260742,-4.10083961486816,-2.56274223327637],"bias":-1.01352405548096},{"weights":[-0.796690464019775,1.03398609161377,2.2132670879364,-2.16691207885742,0.620908260345459],"bias":3.80832552909851}]},{"neurons":[{"weights":[-4.81110000610352,-4.04985523223877,1.15038442611694,4.24981594085693],"bias":-4.36045074462891}]}]}},{"hasCrahsed":true,"fitness":63.0,"nn":{"neuronAmounts":[5,4,1],"DNA":[-1.93789768218994,0.683302402496338,-4.12044143676758,-0.235748767852783,0.496048450469971,-0.813235759735107,3.14652538299561,-0.689737319946289,-4.57233810424805,3.43620085716248,4.73777008056641,-2.69217967987061,4.36324691772461,3.94214153289795,3.27130317687988,2.94857501983643,3.53263640403748,-3.02337551116943,-0.145180702209473,-2.38238859176636,-3.39147353172302,-4.24594497680664,4.35037231445313,1.83872210979462,-1.03722763061523,1.10518741607666,-3.44126796722412,1.80284118652344,-3.01128602027893],"layers":[{"neurons":[{"weights":[-1.93789768218994,0.683302402496338,-4.12044143676758,-0.235748767852783,0.496048450469971],"bias":-0.813235759735107},{"weights":[3.14652538299561,-0.689737319946289,-4.57233810424805,3.43620085716248,4.73777008056641],"bias":-2.69217967987061},{"weights":[4.36324691772461,3.94214153289795,3.27130317687988,2.94857501983643,3.53263640403748],"bias":-3.02337551116943},{"weights":[-0.145180702209473,-2.38238859176636,-3.39147353172302,-4.24594497680664,4.35037231445313],"bias":1.83872210979462}]},{"neurons":[{"weights":[-1.03722763061523,1.10518741607666,-3.44126796722412,1.80284118652344],"bias":-3.01128602027893}]}]}},{"hasCrahsed":true,"fitness":58.0,"nn":{"neuronAmounts":[5,4,1],"DNA":[3.70346808433533,0.948185443878174,1.76746726036072,4.70482587814331,-2.8733549118042,1.00514841079712,2.53048992156982,-2.5574803352356,-4.29242515563965,2.28078603744507,-0.783450126647949,-2.76905298233032,-1.11103820800781,2.91703796386719,0.235983848571777,-3.07877326011658,-2.77112007141113,2.68719553947449,0.288588523864746,0.14532995223999,3.72267723083496,3.80069613456726,-1.33553075790405,-1.51138973236084,-1.29707145690918,-2.58036231994629,-2.63636207580566,-1.66801166534424,0.769629955291748],"layers":[{"neurons":[{"weights":[3.70346808433533,0.948185443878174,1.76746726036072,4.70482587814331,-2.8733549118042],"bias":1.00514841079712},{"weights":[2.53048992156982,-2.5574803352356,-4.29242515563965,2.28078603744507,-0.783450126647949],"bias":-2.76905298233032},{"weights":[-1.11103820800781,2.91703796386719,0.235983848571777,-3.07877326011658,-2.77112007141113],"bias":2.68719553947449},{"weights":[0.288588523864746,0.14532995223999,3.72267723083496,3.80069613456726,-1.33553075790405],"bias":-1.51138973236084}]},{"neurons":[{"weights":[-1.29707145690918,-2.58036231994629,-2.63636207580566,-1.66801166534424],"bias":0.769629955291748}]}]}},{"hasCrahsed":true,"fitness":64.0,"nn":{"neuronAmounts":[5,4,1],"DNA":[-3.93135929107666,-3.4572639465332,-4.52747821807861,4.11598110198975,2.19979763031006,-4.44378280639648,3.90981078147888,-3.80662703514099,3.5723876953125,-4.1690845489502,-4.3521203994751,-4.75302314758301,4.82576751708984,-3.58992791175842,-4.42517280578613,3.15933966636658,-1.17455434799194,0.447926044464111,4.84312057495117,-1.42473888397217,1.35762202739716,-3.25814032554626,4.51786756515503,-3.79195690155029,-4.06580352783203,4.19444465637207,-3.04461264610291,2.77339553833008,4.1251277923584],"layers":[{"neurons":[{"weights":[-3.93135929107666,-3.4572639465332,-4.52747821807861,4.11598110198975,2.19979763031006],"bias":-4.44378280639648},{"weights":[3.90981078147888,-3.80662703514099,3.5723876953125,-4.1690845489502,-4.3521203994751],"bias":-4.75302314758301},{"weights":[4.82576751708984,-3.58992791175842,-4.42517280578613,3.15933966636658,-1.17455434799194],"bias":0.447926044464111},{"weights":[4.84312057495117,-1.42473888397217,1.35762202739716,-3.25814032554626,4.51786756515503],"bias":-3.79195690155029}]},{"neurons":[{"weights":[-4.06580352783203,4.19444465637207,-3.04461264610291,2.77339553833008],"bias":4.1251277923584}]}]}},{"hasCrahsed":true,"fitness":63.0,"nn":{"neuronAmounts":[5,4,1],"DNA":[3.85313606262207,3.76508808135986,2.24212050437927,4.39858055114746,2.64237642288208,1.68592917919159,-4.63130187988281,-3.52978706359863,0.64225959777832,4.75130081176758,3.12714791297913,-3.70329642295837,-4.78497409820557,-3.9441967010498,1.37606716156006,-1.94926452636719,-4.71936702728271,-1.18498754501343,0.52394437789917,1.38861882686615,-0.173254489898682,1.19427967071533,-0.508999347686768,-2.38249349594116,-3.31464862823486,-2.17934417724609,3.70021224021912,3.37818503379822,-1.54209423065186],"layers":[{"neurons":[{"weights":[3.85313606262207,3.76508808135986,2.24212050437927,4.39858055114746,2.64237642288208],"bias":1.68592917919159},{"weights":[-4.63130187988281,-3.52978706359863,0.64225959777832,4.75130081176758,3.12714791297913],"bias":-3.70329642295837},{"weights":[-4.78497409820557,-3.9441967010498,1.37606716156006,-1.94926452636719,-4.71936702728271],"bias":-1.18498754501343},{"weights":[0.52394437789917,1.38861882686615,-0.173254489898682,1.19427967071533,-0.508999347686768],"bias":-2.38249349594116}]},{"neurons":[{"weights":[-3.31464862823486,-2.17934417724609,3.70021224021912,3.37818503379822],"bias":-1.54209423065186}]}]}},{"hasCrahsed":true,"fitness":63.0,"nn":{"neuronAmounts":[5,4,1],"DNA":[-2.31036615371704,-2.77496242523193,-2.24447917938232,2.28755831718445,2.40527629852295,-3.16472434997559,1.51950824260712,0.7605881690979,4.07588958740234,2.70209193229675,-1.61293792724609,-1.44246530532837,3.23539137840271,-3.89875411987305,-4.34383773803711,-4.04607009887695,-4.82635116577148,3.54968643188477,-0.363419532775879,-0.706932067871094,-4.25271415710449,-1.08642530441284,-0.851853370666504,-1.79788398742676,-2.71375894546509,-2.48868656158447,1.43581962585449,0.418715953826904,-4.18432426452637],"layers":[{"neurons":[{"weights":[-2.31036615371704,-2.77496242523193,-2.24447917938232,2.28755831718445,2.40527629852295],"bias":-3.16472434997559},{"weights":[1.51950824260712,0.7605881690979,4.07588958740234,2.70209193229675,-1.61293792724609],"bias":-1.44246530532837},{"weights":[3.23539137840271,-3.89875411987305,-4.34383773803711,-4.04607009887695,-4.82635116577148],"bias":3.54968643188477},{"weights":[-0.363419532775879,-0.706932067871094,-4.25271415710449,-1.08642530441284,-0.851853370666504],"bias":-1.79788398742676}]},{"neurons":[{"weights":[-2.71375894546509,-2.48868656158447,1.43581962585449,0.418715953826904],"bias":-4.18432426452637}]}]}},{"hasCrahsed":true,"fitness":62.0,"nn":{"neuronAmounts":[5,4,1],"DNA":[3.19179534912109,0.607168197631836,4.67561626434326,2.01760387420654,-0.757759094238281,-3.87107372283936,-3.17048454284668,0.0184388160705566,-1.80243301391602,-3.14659595489502,-2.63744592666626,2.06700086593628,-4.64690589904785,-3.471022605896,-1.46848487854004,1.83915603160858,-2.73103952407837,-4.36053371429443,-1.64026689529419,2.09298133850098,1.32284152507782,2.31159567832947,-0.759788036346436,-4.12890529632568,-4.21097755432129,1.55761122703552,3.84641051292419,-1.16947841644287,-2.10138988494873],"layers":[{"neurons":[{"weights":[3.19179534912109,0.607168197631836,4.67561626434326,2.01760387420654,-0.757759094238281],"bias":-3.87107372283936},{"weights":[-3.17048454284668,0.0184388160705566,-1.80243301391602,-3.14659595489502,-2.63744592666626],"bias":2.06700086593628},{"weights":[-4.64690589904785,-3.471022605896,-1.46848487854004,1.83915603160858,-2.73103952407837],"bias":-4.36053371429443},{"weights":[-1.64026689529419,2.09298133850098,1.32284152507782,2.31159567832947,-0.759788036346436],"bias":-4.12890529632568}]},{"neurons":[{"weights":[-4.21097755432129,1.55761122703552,3.84641051292419,-1.16947841644287],"bias":-2.10138988494873}]}]}},{"hasCrahsed":true,"fitness":63.0,"nn":{"neuronAmounts":[5,4,1],"DNA":[-2.3028416633606,-3.18081116676331,4.53396701812744,-2.99707651138306,-4.07699584960938,2.62737512588501,2.62858009338379,1.74833655357361,4.78000640869141,1.71661365032196,2.59607791900635,0.476181983947754,0.925251960754395,1.70211410522461,-0.639094829559326,-1.75469923019409,-2.43501234054565,-0.124485969543457,0.159669399261475,-3.16832327842712,-4.12628173828125,-2.84543609619141,0.677652835845947,-4.8801441192627,0.452983856201172,-2.30790328979492,-4.75076580047607,1.02308320999146,4.20595741271973],"layers":[{"neurons":[{"weights":[-2.3028416633606,-3.18081116676331,4.53396701812744,-2.99707651138306,-4.07699584960938],"bias":2.62737512588501},{"weights":[2.62858009338379,1.74833655357361,4.78000640869141,1.71661365032196,2.59607791900635],"bias":0.476181983947754},{"weights":[0.925251960754395,1.70211410522461,-0.639094829559326,-1.75469923019409,-2.43501234054565],"bias":-0.124485969543457},{"weights":[0.159669399261475,-3.16832327842712,-4.12628173828125,-2.84543609619141,0.677652835845947],"bias":-4.8801441192627}]},{"neurons":[{"weights":[0.452983856201172,-2.30790328979492,-4.75076580047607,1.02308320999146],"bias":4.20595741271973}]}]}},{"hasCrahsed":true,"fitness":62.0,"nn":{"neuronAmounts":[5,4,1],"DNA":[-4.7961254119873,4.82280826568604,3.88544178009033,3.68125438690186,-3.58974075317383,-1.59714031219482,4.46041679382324,-1.1836986541748,3.72551798820496,0.00914525985717773,-3.08626747131348,2.6429557800293,-1.53950023651123,1.66381585597992,-1.17122936248779,-0.747795581817627,-0.844249248504639,1.60633075237274,-0.674336433410645,1.32909655570984,-0.342137336730957,-2.00726222991943,-4.1491584777832,-2.04244422912598,-4.29632377624512,2.5272331237793,4.8303337097168,-1.56327772140503,-4.7620792388916],"layers":[{"neurons":[{"weights":[-4.7961254119873,4.82280826568604,3.88544178009033,3.68125438690186,-3.58974075317383],"bias":-1.59714031219482},{"weights":[4.46041679382324,-1.1836986541748,3.72551798820496,0.00914525985717773,-3.08626747131348],"bias":2.6429557800293},{"weights":[-1.53950023651123,1.66381585597992,-1.17122936248779,-0.747795581817627,-0.844249248504639],"bias":1.60633075237274},{"weights":[-0.674336433410645,1.32909655570984,-0.342137336730957,-2.00726222991943,-4.1491584777832],"bias":-2.04244422912598}]},{"neurons":[{"weights":[-4.29632377624512,2.5272331237793,4.8303337097168,-1.56327772140503],"bias":-4.7620792388916}]}]}},{"hasCrahsed":true,"fitness":63.0,"nn":{"neuronAmounts":[5,4,1],"DNA":[4.07188034057617,-1.49862241744995,3.90459632873535,2.13000392913818,0.761421203613281,-0.0165634155273438,-0.142260074615479,4.79703521728516,1.00337696075439,2.32293605804443,0.428874015808105,2.01030826568604,3.78618121147156,0.0481791496276855,1.43867588043213,2.2879683971405,-4.91679954528809,-4.74516010284424,-4.59819602966309,2.76008009910584,3.69736194610596,0.19094181060791,2.65196418762207,2.58909463882446,-0.617730140686035,-4.7775764465332,-4.45786952972412,1.73810231685638,-2.68016719818115],"layers":[{"neurons":[{"weights":[4.07188034057617,-1.49862241744995,3.90459632873535,2.13000392913818,0.761421203613281],"bias":-0.0165634155273438},{"weights":[-0.142260074615479,4.79703521728516,1.00337696075439,2.32293605804443,0.428874015808105],"bias":2.01030826568604},{"weights":[3.78618121147156,0.0481791496276855,1.43867588043213,2.2879683971405,-4.91679954528809],"bias":-4.74516010284424},{"weights":[-4.59819602966309,2.76008009910584,3.69736194610596,0.19094181060791,2.65196418762207],"bias":2.58909463882446}]},{"neurons":[{"weights":[-0.617730140686035,-4.7775764465332,-4.45786952972412,1.73810231685638],"bias":-2.68016719818115}]}]}},{"hasCrahsed":true,"fitness":63.0,"nn":{"neuronAmounts":[5,4,1],"DNA":[-0.699697017669678,-3.14272141456604,-0.663846015930176,-0.334686756134033,3.94768333435059,1.09957504272461,4.29705381393433,-4.97607326507568,1.61734092235565,4.55190181732178,-1.05402183532715,-0.777894973754883,-0.631304264068604,-3.19403862953186,-3.83823490142822,-4.4676628112793,0.465982437133789,1.4256227016449,-1.18126106262207,-4.38515472412109,3.84257102012634,-3.99023914337158,3.57769107818604,1.03130149841309,-1.90391254425049,-3.24285984039307,-1.67665195465088,-2.30295467376709,2.89380788803101],"layers":[{"neurons":[{"weights":[-0.699697017669678,-3.14272141456604,-0.663846015930176,-0.334686756134033,3.94768333435059],"bias":1.09957504272461},{"weights":[4.29705381393433,-4.97607326507568,1.61734092235565,4.55190181732178,-1.05402183532715],"bias":-0.777894973754883},{"weights":[-0.631304264068604,-3.19403862953186,-3.83823490142822,-4.4676628112793,0.465982437133789],"bias":1.4256227016449},{"weights":[-1.18126106262207,-4.38515472412109,3.84257102012634,-3.99023914337158,3.57769107818604],"bias":1.03130149841309}]},{"neurons":[{"weights":[-1.90391254425049,-3.24285984039307,-1.67665195465088,-2.30295467376709],"bias":2.89380788803101}]}]}},{"hasCrahsed":true,"fitness":595.0,"nn":{"neuronAmounts":[5,4,1],"DNA":[-2.30902719497681,-3.35304355621338,1.82774901390076,4.58352184295654,0.769002914428711,-3.82279968261719,1.98190093040466,-2.18602466583252,-4.18983554840088,-3.17781066894531,-0.0472612380981445,-4.27437400817871,3.24364280700684,-4.43072414398193,-0.219583988189697,1.3264821767807,-1.28568601608276,0.916409969329834,-2.30286884307861,-0.781105041503906,-2.93048477172852,1.59222829341888,-3.33937168121338,1.93039989471436,3.25415015220642,1.5868673324585,3.35129833221436,-1.37115526199341,-4.52942848205566],"layers":[{"neurons":[{"weights":[-2.30902719497681,-3.35304355621338,1.82774901390076,4.58352184295654,0.769002914428711],"bias":-3.82279968261719},{"weights":[1.98190093040466,-2.18602466583252,-4.18983554840088,-3.17781066894531,-0.0472612380981445],"bias":-4.27437400817871},{"weights":[3.24364280700684,-4.43072414398193,-0.219583988189697,1.3264821767807,-1.28568601608276],"bias":0.916409969329834},{"weights":[-2.30286884307861,-0.781105041503906,-2.93048477172852,1.59222829341888,-3.33937168121338],"bias":1.93039989471436}]},{"neurons":[{"weights":[3.25415015220642,1.5868673324585,3.35129833221436,-1.37115526199341],"bias":-4.52942848205566}]}]}},{"hasCrahsed":true,"fitness":60.0,"nn":{"neuronAmounts":[5,4,1],"DNA":[1.97255229949951,-0.557506561279297,-1.02199983596802,-3.51438522338867,-0.947892189025879,1.14133787155151,3.31963419914246,-3.72902870178223,-4.3887882232666,-2.87644290924072,4.68533420562744,-1.03202533721924,-1.86833906173706,-2.41998863220215,-2.58201217651367,0.647277355194092,-2.08852815628052,4.30924034118652,1.04183864593506,4.99991035461426,0.490245342254639,-2.93684482574463,4.57016086578369,1.4583443403244,4.9159049987793,4.31526660919189,-2.16494846343994,-2.9313383102417,-4.53530311584473],"layers":[{"neurons":[{"weights":[1.97255229949951,-0.557506561279297,-1.02199983596802,-3.51438522338867,-0.947892189025879],"bias":1.14133787155151},{"weights":[3.31963419914246,-3.72902870178223,-4.3887882232666,-2.87644290924072,4.68533420562744],"bias":-1.03202533721924},{"weights":[-1.86833906173706,-2.41998863220215,-2.58201217651367,0.647277355194092,-2.08852815628052],"bias":4.30924034118652},{"weights":[1.04183864593506,4.99991035461426,0.490245342254639,-2.93684482574463,4.57016086578369],"bias":1.4583443403244}]},{"neurons":[{"weights":[4.9159049987793,4.31526660919189,-2.16494846343994,-2.9313383102417],"bias":-4.53530311584473}]}]}},{"hasCrahsed":true,"fitness":223.0,"nn":{"neuronAmounts":[5,4,1],"DNA":[-4.08133506774902,-0.836722373962402,3.03657412528992,-3.28878498077393,-4.53277587890625,0.747994899749756,4.34867095947266,-4.13089752197266,-4.04602432250977,0.9597487449646,-0.0761013031005859,-0.863668441772461,-4.13677310943604,-3.8355085849762,1.98805797100067,-2.51872539520264,3.62208843231201,2.61637783050537,4.21777629852295,3.25145936012268,2.8985652923584,-1.54654216766357,-4.43972396850586,1.29910826683044,0.64013671875,2.55868196487427,4.87698078155518,-2.58911037445068,-4.65808296203613],"layers":[{"neurons":[{"weights":[-4.08133506774902,-0.836722373962402,3.03657412528992,-3.28878498077393,-4.53277587890625],"bias":0.747994899749756},{"weights":[4.34867095947266,-4.13089752197266,-4.04602432250977,0.9597487449646,-0.0761013031005859],"bias":-0.863668441772461},{"weights":[-4.13677310943604,-3.8355085849762,1.98805797100067,-2.51872539520264,3.62208843231201],"bias":2.61637783050537},{"weights":[4.21777629852295,3.25145936012268,2.8985652923584,-1.54654216766357,-4.43972396850586],"bias":1.29910826683044}]},{"neurons":[{"weights":[0.64013671875,2.55868196487427,4.87698078155518,-2.58911037445068],"bias":-4.65808296203613}]}]}}]}]}]}